2.555021512907218462e-01
2.623481428568257834e-01
3.751869119729132951e+00
2.124746593571465447e-01
-1.990271443878654845e+00
2.915237749949270429e-01
3.851336641680677131e-01
4.367161222231533690e-01
4.532873337647819745e-01
-2.074906559703165509e+00
5.549444804481705740e-01
4.652697153282741027e-01
3.696922160181170258e-01
-2.106005043085407813e+00
1.962719184521368176e-01
-1.505248224652327715e-01
-2.074343784261977408e+00
1.204842736432908262e-01
4.705565558802817794e-01
-2.178423381929751379e+00
4.558068828382143001e-01
7.172527562513054677e-01
3.972307897388237752e+00
-2.010726768781360807e+00
-2.857527399374251015e-02
-2.112264512289592666e+00
3.552495269728945804e-01
2.346544695297870520e-01
7.876720353135625574e-01
3.178870480487162586e-01
1.327093199589446104e-01
1.541980066503179092e-01
3.853322763909053927e-01
3.457904418192890295e-01
2.795203231343646455e-01
9.256978575883421934e-02
5.338017115573858717e-01
6.620453893747789698e-01
-2.099539406576086176e+00
4.277487165691436499e-01
1.217574527248278804e-01
2.465847049924769774e-01
-2.076261481581894497e+00
2.592450799506834103e-01
-2.159451097288448196e+00
3.131384829142407900e-01
-2.336052677447993275e+00
-2.380253155553310407e+00
1.231305707465159965e-02
3.076365170683330041e-01
5.198372506526575121e-01
-1.671692417642641482e-01
-8.289872752114388343e-02
2.567380887644729603e-01
-1.949519788904233497e+00
-2.189641756979603837e+00
1.839603376133003565e-01
2.456213927029759214e-01
-2.114943792235968623e+00
1.140214210451697407e-01
-7.052055741803657518e-02
1.129121115691641003e-01
4.880818073864889861e-01
-2.109850966362403213e+00
1.539130696998450287e-01
-1.983403745034804322e+00
-2.029707949052370619e+00
5.712530990654867552e-02
-4.993537768569510787e-02
2.114299684726885786e-01
-1.292400485003256105e-01
-2.129165040199787029e+00
2.827902786258057119e-02
-1.449719662243804941e-01
5.224224216713378999e-01
3.494691501584176740e-01
7.378748638168214358e-01
-2.410326650791828396e+00
2.392018102311382899e-01
2.304727710587650413e-01
-2.259912648916772238e+00
2.658578625197492440e-01
4.482785352850324201e-01
-2.156346606680494382e+00
-1.080523673243073274e-01
-1.984941839237079453e+00
-2.129341006983561879e+00
5.214057243034329048e-01
3.835692958427030508e-01
6.970029164462742122e-01
4.592194991534485071e-01
7.820096327505497713e-02
-1.464331563428928618e-01
2.880749363119832762e-01
3.188705040491434661e-01
3.939338595763425821e-01
-2.119801876240908545e+00
3.392379655338050304e-01
-2.163488053868864114e+00
5.650773537147650849e-01
3.718737536644194930e-01
4.016644669534892298e-01
3.725356410663293594e-01
-2.379496128527572196e+00
-2.325395172118385201e+00
2.967987293618893907e-01
-2.179040004773507455e+00
1.010128969356764300e-01
2.961255134146885126e-01
-2.229965387282954126e+00
3.084851956989900779e-01
-2.128304476276043022e+00
1.896912225294112020e-01
3.028042021736239153e-01
-2.158221347221642272e+00
-3.451744035261162385e-02
5.973409982176749455e-01
-2.087192248645779902e+00
1.454778592846808494e-01
5.917004882095677765e-01
4.704675569995359075e-01
4.374381486439094663e-02
5.992053920069120299e-01
1.679332358008869264e-01
3.480305415682766190e-01
-9.977260905919979606e-02
-2.383511643705438665e+00
-5.733949294338108738e-01
1.821030978783365339e-01
3.603428670927187327e-01
5.520509664718424858e-01
4.624536741323865274e-01
-1.991325583049425418e+00
3.435386138783081411e-01
6.250822482170405037e-01
4.814572973450409465e-01
5.529624619647683925e-01
6.011090544829981175e-01
3.136858457787884968e-01
-2.002182486663659056e+00
-1.986177453226946277e+00
-2.390098281048878004e+00
-2.099704176233442077e+00
3.201236676525282543e-01
2.925490556792464947e-01
2.175683866297656310e-01
-1.954327416768157688e+00
-6.582969281984850374e-02
4.103071789354962862e-01
3.134347585528322044e-01
3.408515408390126455e-01
5.150264603277581177e-01
6.636427745021715729e-01
5.104502801057503314e-01
1.101671734209707376e-01
1.145878541680597495e-01
5.976526486056261689e-01
3.298813881830450767e-01
-1.926478754270121607e+00
2.612493452825414009e-01
5.862983359758222601e-01
2.078101716729640336e-01
5.170918390726797487e-01
3.251557275271527159e-01
3.295509387026420156e-01
8.272519747352434505e-02
5.462542930115749096e-01
-2.157913180195035530e+00
5.290972009659886677e-01
-2.396427423142969193e+00
3.424085602271464412e-01
-3.546964299703475598e-02
-5.175819144053579457e-01
8.592938913683916269e-01
3.386722024210870319e-01
-2.221592177953924274e+00
-1.172401157638674057e-01
-3.800940952661237965e-02
2.043418759749761338e-01
-2.380578266997658066e+00
2.444590909348428043e-01
2.875427133559680937e-01
5.819326226223862086e-01
-1.891156285197900688e+00
-1.634402176224300420e-03
8.007229109465642258e-01
2.089168668481892199e-01
3.285300533747249618e-01
3.310982068799416256e-01
3.592223474610179990e-01
6.928823826347620951e-01
-2.422259715846245776e+00
1.113776786713484707e-01
6.798468773864647652e-01
7.193124395546971472e-01
1.677537917460873163e-01
-2.123449213362671451e+00
4.576363927264205933e-01
-2.315606333122472993e+00
3.889401682968733343e-01
-1.336713863018185455e-01
-2.185409270226373657e+00
2.127523283378427443e-01
4.509536319118436776e-01
2.933326859528461172e-01
1.205036835259344769e-01
3.646903747363701709e-01
5.271125679950567910e-01
-2.124090593886050371e+00
-3.064417965891910733e-01
5.286378903249313588e-01
2.060065424733744932e-01
1.923406953996190660e-01
2.331454101051872174e-01
-6.836303500441670566e-02
2.053295125481507388e-01
-8.173837716193473046e-02
6.629536498112642562e-01
-3.783372456941810208e-02
5.358548442196733319e-01
3.235733445210340342e-01
3.063176736032063863e-01
1.883393548062138600e-01
3.085098029031944078e-01
6.251097039903342756e-01
-2.144837243426022777e+00
4.870760052981702448e-01
5.765973012551095511e-01
6.000002289697720093e-01
3.854683447912233274e-01
2.260536046208038163e-01
2.767802027808426435e-01
8.493214811800370301e-01
1.765638008135742660e-03
-7.053217211575593670e-02
5.582271194761320166e-01
3.975111020123452965e-01
2.565243612269665907e-01
-7.602939522109271320e-02
-2.100546084564337779e+00
-2.250213091666058318e+00
3.387399820323533928e-01
-9.812942958412217143e-02
3.188762501270623884e-01
3.545929010434791251e-01
-2.173738696248963986e+00
6.125709506563562501e-01
3.813505258548667287e-01
-1.957771205569932782e+00
1.850621923699727056e-01
4.005300931213294779e-01
4.869755406617504723e-01
1.101318970992616192e-01
3.347563727794381494e-01
5.508223247580186221e-01
4.433097370086079847e-01
-1.097346090496401222e-01
3.576875075404424287e-01
5.925075284128128450e-02
4.911706181148375872e-01
-2.323453820457156205e+00
-2.112744978730713985e+00
3.913812719374567539e-01
6.436654722260890527e-01
-2.269221239859701811e+00
4.051084940334651607e-01
-2.059748477062648409e+00
-2.123449250721483050e+00
4.063406767975217826e-01
4.630172604373981038e-01
5.883001225454953520e-01
4.388000488055887049e-01
1.426698470941961949e-01
-2.408562760236873768e+00
-2.345041505455715658e+00
2.719251577489306126e-01
6.347065799586683044e-01
2.374352782363302328e-01
-2.305279865228780256e+00
-1.363513989136559412e-01
4.934718446362421074e-01
1.842755548129297594e-02
-2.085742692009243004e+00
6.767026603041957911e-01
2.196179285410218562e-01
5.326843369351635937e-01
2.642085921064290521e-01
3.299635516822114201e-01
1.874308357790788193e-01
3.524320786042434150e-01
2.556288290535206897e-01
4.246925266272494337e-01
3.909619019656703220e-01
3.697332024507908876e-01
-2.005076711806041079e+00
-2.167935277429820395e+00
5.289208547552053385e-01
1.886285613005180828e-01
4.037891060107757779e-01
3.424986287377433380e-01
1.986345219678672946e-01
7.232256203614173540e-02
2.919575364588412186e-02
5.805114827178722292e-01
1.881003922187882704e-01
2.915544554832558699e-01
2.498901025590687386e-01
9.161718511984161262e-02
3.830548753896027003e-01
3.520372331769589525e-01
4.376055550420675511e-01
4.513113955448044279e-01
6.309963126689731305e-02
2.852214086179452601e-01
6.858445872647015440e-01
2.336266773650977069e-01
3.776054666616422972e-01
2.944838995132807447e-01
3.459888257210506635e-01
4.000673760694399839e-01
5.964272762245840243e-01
-1.376702545548358636e-01
6.097722135628768081e-01
3.450124473934189639e-01
1.287829186246974844e-01
2.928486446251528097e-01
2.833618920388004114e-01
1.777143132344436716e-01
4.983445373534465817e-01
-2.259571615805102685e+00
2.776233774932014287e-01
4.278081654974374287e-02
3.533650836395129113e-01
-2.083977004255989307e+00
5.886459971880158015e-01
-2.180509646811944702e+00
5.946862021104699636e-01
3.389713006093355574e-01
-2.104623879960209720e+00
-7.776533862116664919e-02
5.199028953222093463e-01
4.294949266776611485e-01
-2.184211420341514387e+00
4.391354940646897687e-01
2.470118874218552307e-01
3.505396945160338396e-01
8.002992501030435635e-02
4.458892431704357118e-01
3.738542576061235634e-01
5.390411000791501817e-01
-1.996581323514462047e+00
3.158488156571612748e-01
4.570159682072483798e-01
-9.947611741095677140e-02
3.012175044866305940e-01
2.698707658252049724e-01
4.737803241086991357e-01
-2.131747962870651936e+00
3.273159910220304614e-01
3.868384388851806022e-01
2.534074126325482901e-01
3.039150792573911408e-01
7.806959869612575820e-02
4.709620543986625107e-01
5.430314499171532416e-01
9.816534457457769258e-02
-2.210589044849229357e+00
1.587473113106726841e-01
6.205664886231111455e-01
-2.197692985380598429e+00
3.384666683359627837e-01
4.820948775871113368e-01
6.052940925551518747e-01
3.020648375837787225e-01
4.434684634647026447e-01
5.351618965559097330e-01
-2.060957676602423572e+00
5.825898669608955416e-01
3.239588398629644206e-01
4.733798901606196541e-01
-1.255536855277699371e-01
-5.236105728383250169e-01
2.713358738709903406e-01
1.494772525120568185e-01
3.354676471985885144e-01
2.827018340933118434e-01
5.975718918624558507e-01
-4.994026598816284773e-02
-2.436329326060123979e+00
5.048637023027253701e-01
2.865297263118491977e-01
2.173001587401890977e-01
3.302589648133325562e-01
2.039203596094670834e-01
3.806774670543313088e-01
5.715832014017573348e-01
4.402145055480017471e-02
-2.118406864967203873e+00
-2.331273688179449799e+00
-2.097684045469561553e+00
