1.631553908407517239e+00
1.671790784294413967e+00
3.644835838661214744e+00
1.511233645561371519e+00
-3.442972186115455635e+00
1.523878248421325576e+00
1.540323081695431195e+00
1.484891097309996244e+00
1.573615091791667364e+00
-3.434096968173748987e+00
1.518336354359048901e+00
1.562166788300318299e+00
1.653163692293791120e+00
-3.484193734115309748e+00
1.629756860784811190e+00
1.734063721979226980e+00
-3.400320477749444237e+00
1.582944371323334432e+00
1.639302678120131640e+00
-3.407861422350641156e+00
1.515724311431907445e+00
1.478279733255844608e+00
3.892856570096587809e+00
-3.509563474328266430e+00
-7.022019378339966478e-02
-2.873799288265701968e+00
1.633725420986881671e+00
1.553059047964885808e+00
1.859775277666652515e+00
1.603533637450326177e+00
1.552088789476446129e+00
1.493575770898733390e+00
1.443308357127561781e+00
1.464368419092010765e+00
1.555862391483692431e+00
1.624205162915694833e+00
1.505634226889597471e+00
1.786078441307981768e+00
-3.781180106922287010e+00
1.596999724894414996e+00
1.637460762581685270e+00
1.507292729673234799e+00
-3.425437648518465661e+00
1.472327799992547703e+00
-3.547813791484436763e+00
1.474375405861488408e+00
-3.225448495675172556e+00
-3.364430307256191632e+00
1.550528391557461472e+00
1.534245070756860896e+00
1.526081591157902873e+00
-1.113815895972977005e-02
1.696922450750340206e+00
1.569002177727553127e+00
-3.469904743452012497e+00
-3.428064706057873501e+00
1.683721032475565593e+00
1.607238659195448616e+00
-3.732159376201578116e+00
1.682751513202885185e+00
1.666174211432926766e+00
1.583501479272998003e+00
1.499351641965390725e+00
-3.504308267820419154e+00
1.595718248356413627e+00
-3.403847232079548313e+00
-3.448959619766549523e+00
1.562150214624271838e+00
-8.637403083134939652e-02
1.579353614364651825e+00
-6.153529241978478170e-02
-3.504356788979667403e+00
1.494294776904328659e+00
-7.235639940602256459e-02
1.479809557265408859e+00
1.448700119977996970e+00
1.778118103251861815e+00
-3.238145323448476720e+00
1.550953265136512327e+00
1.635522849298608472e+00
-3.406311410165241416e+00
1.491629521330562591e+00
1.482940574081060392e+00
-3.432865945793665219e+00
-3.157641921399735596e-02
-3.450216707447147257e+00
-3.516677081295482843e+00
1.540987492192642527e+00
1.511691487025677905e+00
1.618873198394825907e+00
1.459255656013348945e+00
1.602085429707392317e+00
-3.109101875086076744e-02
1.508571193879419514e+00
1.563757371071897051e+00
1.478061388740254278e+00
-3.598941106544450985e+00
1.507528185178281355e+00
-3.509262089076006230e+00
1.401484064450801981e+00
1.544715258936559588e+00
1.486685750207079604e+00
1.587029180120500316e+00
-3.183397315516987458e+00
-3.308260410367179549e+00
1.568038073262867815e+00
-3.129171048148395862e+00
1.576912923621407447e+00
1.597444250661344878e+00
-3.349308757604708475e+00
1.640506517171198109e+00
-3.545976759909180043e+00
1.519982248247800927e+00
1.571615412159767411e+00
-3.575315621442568759e+00
1.627154670389629576e+00
1.472687343088303624e+00
-3.457988116363600817e+00
1.641415908973504534e+00
1.754305534434281943e+00
1.436512838024196714e+00
1.537625307981145273e+00
1.439957406937867779e+00
1.614019732602665957e+00
1.576077798702919308e+00
-4.176835626622881631e-02
-3.251161122402341341e+00
1.809477214928687294e+00
1.533214029541881462e+00
1.665226549187612592e+00
1.490168504230555024e+00
1.578006502056849003e+00
-3.563860567637390897e+00
1.506589851599100083e+00
1.506334010604582385e+00
1.573872014590827373e+00
1.548319996100019802e+00
1.565236474186940674e+00
1.485688697069172726e+00
-3.457469646626869508e+00
-3.559961287163309951e+00
-3.112091697649858713e+00
-3.423272722845120963e+00
1.442958144386263575e+00
1.628834039369291498e+00
1.581614373070475477e+00
-3.396407982065287712e+00
1.550691387728029502e+00
1.641657502897983845e+00
1.573713262215632236e+00
1.614812338699007421e+00
1.486038126188368835e+00
1.562653992199225961e+00
1.581777938000973105e+00
1.574053865715386635e+00
1.626336520593617552e+00
1.539197057242013278e+00
1.692330682374750150e+00
-3.474079919407551120e+00
1.429126347763468807e+00
1.475864544613407991e+00
1.689303557914419107e+00
1.626046841563812517e+00
1.522303250589330359e+00
1.556936254537530484e+00
1.490344033984084327e+00
1.456653009984514524e+00
-3.429734093973163755e+00
1.523943508167489025e+00
-3.419032065445918533e+00
1.579175097815112450e+00
1.529918085237449654e+00
1.879610844979491269e+00
1.531720012805879216e+00
1.498873834673783545e+00
-3.115925247686335275e+00
-5.606178892637726091e-02
-3.640658435595895553e-02
1.537066188693718916e+00
-3.022120628984277246e+00
1.594731354059283346e+00
1.528717891347185942e+00
1.711848562486633751e+00
-3.539998245528513721e+00
1.863452201631164318e+00
1.910686249638373413e+00
1.640959538225597036e+00
1.558708980490941753e+00
1.575619726948924271e+00
1.549811065262972631e+00
1.769612745693642131e+00
-3.175293302856543320e+00
1.603692345266676478e+00
1.645278473713770007e+00
1.599186363920459542e+00
1.538007478262251260e+00
-3.703307824144306704e+00
1.502045915078208838e+00
-3.289316897745656831e+00
1.514396146479863203e+00
-1.014433612514128447e-01
-3.240619337503126030e+00
1.521663748677879235e+00
1.607759873334869916e+00
1.615692056790955178e+00
1.608919063697830554e+00
1.435087497892465036e+00
1.454028546808848299e+00
-3.699212924129475777e+00
1.954334304905168018e+00
1.513197583770365728e+00
1.513246078628152969e+00
1.519528972402862443e+00
1.478934064236034240e+00
9.356145712966889888e-73
1.569618796979304953e+00
-2.582564337479904132e-02
1.647735046584044571e+00
1.638916580681948565e+00
1.488558743874134338e+00
1.453664834916541082e+00
1.618925861949672695e+00
1.528013347892809293e+00
1.411104001945107100e+00
1.703575824738131628e+00
-3.025508533854048387e+00
1.705355340572135114e+00
1.488662065362213349e+00
1.518223028144616737e+00
1.548088440726049342e+00
1.525310886261866061e+00
1.688171778879289375e+00
1.798545496234909002e+00
1.646763118830527839e+00
1.690161503075464866e+00
1.544920785022713128e+00
1.429007331162073013e+00
1.462518034953583346e+00
1.657760169255493521e+00
-3.093625926777598512e+00
-3.402170415561384775e+00
1.514251947177508217e+00
-9.276722947977807110e-02
1.527741544785531813e+00
1.473730669296394291e+00
-3.432964052961650303e+00
1.463345156636130184e+00
1.552208705951295009e+00
-3.343110504222984947e+00
1.633589908792800083e+00
1.555561775834358729e+00
1.487886318805818897e+00
1.596416044862756456e+00
1.472509799774319506e+00
1.409520473058043510e+00
1.531770474888957345e+00
-5.286715111465572353e-02
1.710415149156530035e+00
1.612381852088459855e+00
1.610021442267889569e+00
-3.389703765959439341e+00
-3.466792379406107294e+00
1.562702732954104112e+00
1.582883800986807366e+00
-3.487024772033183950e+00
1.514354281279209680e+00
-3.475650722508490276e+00
-3.414872975718512560e+00
1.573030710752085115e+00
1.541580430123109746e+00
1.767275277287901902e+00
1.485968706387594596e+00
1.637919993320313683e+00
-3.185561264857385666e+00
-2.765751239139492501e+00
1.558769751055277153e+00
1.617941601401973406e+00
1.554758445327552696e+00
-3.250707155692363237e+00
-2.549765736455747098e-02
1.460284213676717568e+00
1.592167834739227406e+00
-3.353710735549340960e+00
1.778010932630036400e+00
1.603860705977110390e+00
1.490485592995262953e+00
1.496977938759829652e+00
1.567700711935082536e+00
1.591840222329400811e+00
1.528990108062723507e+00
1.487435175152488132e+00
1.518358782429390930e+00
1.561168324619545800e+00
1.541535645287986478e+00
-3.490532873125969715e+00
-3.071348656375737729e+00
1.626302452171252355e+00
1.524123662676976965e+00
1.611654939889593630e+00
1.475448298031178274e+00
1.705666079985915573e+00
1.649300496925887316e+00
1.596617696550382437e+00
1.419697072380854408e+00
1.685177232561712479e+00
1.607382812576343856e+00
1.543674599537804948e+00
1.676156941941099765e+00
1.584222572191898548e+00
1.469734406377779523e+00
1.577735087684302151e+00
1.530672532864497448e+00
1.613013751470689261e+00
1.429120246090058943e+00
1.717141598089149124e+00
1.594562368257574914e+00
1.558830185368414334e+00
1.496740326926089937e+00
1.680433577560983105e+00
1.564227211277765539e+00
1.604526766194688925e+00
-7.532135880472275169e-02
1.500265027182479560e+00
1.446158678712532675e+00
1.773726742063108208e+00
1.601968653915728957e+00
1.635468363407991621e+00
1.679415396465791632e+00
1.427686604264384540e+00
-3.240893035760006757e+00
1.563018623333115142e+00
1.603207007567504006e+00
1.507718016363172264e+00
-3.632815455837020036e+00
1.534420610181950861e+00
-3.223768680597289382e+00
1.529343107788808886e+00
1.652807132910564469e+00
-3.346358952851304025e+00
-1.110382520470056152e-02
1.528539465668932174e+00
1.472999628313416798e+00
-3.362642534711667075e+00
1.645561358463877522e+00
1.518944085829561752e+00
1.523496956304883687e+00
1.724232702708329290e+00
1.661616003172214251e+00
1.435227574685416840e+00
1.484047844634523772e+00
-3.439157652425775868e+00
1.693234673182681282e+00
1.646187905210113822e+00
-6.832137838129367924e-02
1.634743997913451485e+00
1.510926029095532197e+00
1.704977739736327491e+00
-3.472551339227423206e+00
1.655950200034955078e+00
1.479180965409222726e+00
1.470012111873787886e+00
1.525955577717330369e+00
1.636242377482314048e+00
1.544572278558410838e+00
1.371770176785839679e+00
1.616897224633981667e+00
-3.344479498497200165e+00
1.549980812694079946e+00
1.475228711724136721e+00
-3.265200754148259943e+00
1.556388124018399877e+00
1.524395834815927886e+00
1.450252276504314874e+00
1.502668596651160371e+00
1.472203005471907078e+00
1.386466079117145700e+00
-3.255875620827610728e+00
1.419521591227957735e+00
1.563047449681793211e+00
1.454257049996629858e+00
-5.951956179522388535e-02
1.772697374069330589e+00
1.451320426497062499e+00
1.544784410481300885e+00
1.639837177263472556e+00
1.541753062738523639e+00
1.543655235163594819e+00
-4.502464439002903246e-02
-2.770544372538032096e+00
1.479251175100056770e+00
1.526282179808975847e+00
1.615669006225355142e+00
1.637849193379953716e+00
1.530660924450707006e+00
1.411967817297760330e+00
1.479199280102883263e+00
1.588428036344767147e+00
-3.713523164519624054e+00
-3.266237642268928099e+00
-3.498075959657143130e+00
